EXPORTED CROSS SECTION DATA
284 4 4
x coordinate
Electron QFL
Valence Band Energy
Conduction Band Energy
8.6940000000e-02 -3.0000000000e+00 -3.9559746439e+00 -2.8759746439e+00 
9.6840000000e-02 -3.0000000000e+00 -3.9559743420e+00 -2.8759743420e+00 
1.5690000000e-01 -3.0000000000e+00 -3.9559733418e+00 -2.8759733418e+00 
1.6350000000e-01 -3.0000000000e+00 -3.9559724826e+00 -2.8759724826e+00 
2.0855000000e-01 -3.0000000000e+00 -3.9559721222e+00 -2.8759721222e+00 
2.1350000000e-01 -3.0000000000e+00 -3.9559709730e+00 -2.8759709730e+00 
2.4354000000e-01 -3.0000000000e+00 -3.9561541669e+00 -2.8761541669e+00 
2.4684000000e-01 -3.0000000000e+00 -3.9561557645e+00 -2.8761557645e+00 
2.7846000000e-01 -3.0000000000e+00 -3.9858180316e+00 -2.9058180316e+00 
2.8193000000e-01 -3.0000000000e+00 -3.9860418745e+00 -2.9060418745e+00 
3.0642000000e-01 -3.0000000000e+00 -3.9864507000e+00 -2.9064507000e+00 
3.0911000000e-01 -3.0000000000e+00 -3.9864529510e+00 -2.9064529510e+00 
3.2808000000e-01 -3.0000000000e+00 -3.9865172653e+00 -2.9065172653e+00 
3.3017000000e-01 -3.0000000000e+00 -3.9865153043e+00 -2.9065153043e+00 
3.4745000000e-01 -3.0000000000e+00 -3.9865093396e+00 -2.9065093396e+00 
3.4935000000e-01 -3.0000000000e+00 -3.9865059374e+00 -2.9065059374e+00 
3.6558000000e-01 -3.0000000000e+00 -3.9864914311e+00 -2.9064914311e+00 
3.6737000000e-01 -3.0000000000e+00 -3.9864863630e+00 -2.9064863630e+00 
3.8261000000e-01 -3.0000000000e+00 -3.9864412763e+00 -2.9064412763e+00 
3.8428000000e-01 -3.0000000000e+00 -3.9864330188e+00 -2.9064330188e+00 
3.9859000000e-01 -3.0000000000e+00 -3.9860295993e+00 -2.9060295993e+00 
4.0016000000e-01 -3.0000000000e+00 -3.9860113718e+00 -2.9060113718e+00 
4.1359000000e-01 -3.0000000000e+00 -3.9809536450e+00 -2.9009536450e+00 
4.1507000000e-01 -3.0000000000e+00 -3.9808632399e+00 -2.9008632399e+00 
4.2768000000e-01 -3.0000000000e+00 -3.9241218913e+00 -2.8441218913e+00 
4.2907000000e-01 -3.0000000000e+00 -3.9232644209e+00 -2.8432644209e+00 
4.4091000000e-01 -3.0000000000e+00 -3.7029015575e+00 -2.6229015575e+00 
4.4222000000e-01 -3.0000000000e+00 -3.6957638447e+00 -2.6157638447e+00 
4.5334000000e-01 -2.9999994504e+00 -3.4683326264e+00 -2.3883326264e+00 
4.5456000000e-01 -2.9999994484e+00 -3.4480207630e+00 -2.3680207630e+00 
4.6500000000e-01 -2.9673179778e+00 -3.1734039046e+00 -2.0934039046e+00 
4.6615000000e-01 -2.9672476651e+00 -3.1440409114e+00 -2.0640409114e+00 
4.7595000000e-01 -2.6451756286e+00 -2.8144353453e+00 -1.7344353453e+00 
4.7703000000e-01 -2.6212060549e+00 -2.7768046471e+00 -1.6968046471e+00 
4.8623000000e-01 -2.3034378408e+00 -2.4594110291e+00 -1.3794110291e+00 
4.8724000000e-01 -2.2691226599e+00 -2.4196382948e+00 -1.3396382948e+00 
4.9589000000e-01 -2.0449440526e+00 -2.1955340391e+00 -1.1155340391e+00 
4.9684000000e-01 -2.0184489938e+00 -2.1638621113e+00 -1.0838621113e+00 
5.0550000000e-01 -1.8037082695e+00 -1.9491852148e+00 -8.6918521749e-01 
5.0645000000e-01 -1.7801102574e+00 -1.9236630227e+00 -8.4366302571e-01 
5.1511000000e-01 -1.6086733221e+00 -1.7523358939e+00 -6.7233589146e-01 
5.1607000000e-01 -1.5884258301e+00 -1.7319525795e+00 -6.5195257716e-01 
5.2473000000e-01 -1.4500609725e+00 -1.5937825208e+00 -5.1378252210e-01 
5.2568000000e-01 -1.4334267753e+00 -1.5771955276e+00 -4.9719552863e-01 
5.3435000000e-01 -1.3197114995e+00 -1.4638218709e+00 -3.8382187005e-01 
5.3530000000e-01 -1.3058786827e+00 -1.4500950545e+00 -3.7009505371e-01 
5.4396000000e-01 -1.2107873040e+00 -1.3556031827e+00 -2.7560318636e-01 
5.4491000000e-01 -1.1990861542e+00 -1.3440797378e+00 -2.6407974184e-01 
5.5358000000e-01 -1.1182011964e+00 -1.2642459645e+00 -1.8424596764e-01 
5.5453000000e-01 -1.1081288288e+00 -1.2544523708e+00 -1.7445237330e-01 
5.6319000000e-01 -1.0380651960e+00 -1.1862017108e+00 -1.0620170671e-01 
5.6414000000e-01 -1.0292418973e+00 -1.1777886569e+00 -9.7788653298e-02 
5.7281000000e-01 -9.6729396636e-01 -1.1188378538e+00 -3.8837857166e-02 
5.7376000000e-01 -9.5943807518e-01 -1.1115425275e+00 -3.1542530110e-02 
5.8242000000e-01 -9.0344656282e-01 -1.0601645022e+00 1.9835495419e-02 
5.8337000000e-01 -8.9636002536e-01 -1.0537857100e+00 2.6214287234e-02 
5.9204000000e-01 -8.4476141137e-01 -1.0086516812e+00 7.1348318700e-02 
5.9299000000e-01 -8.3831342971e-01 -1.0030330192e+00 7.6966980923e-02 
6.0165000000e-01 -7.9019901392e-01 -9.6310489597e-01 1.1689510428e-01 
6.0260000000e-01 -7.8430443704e-01 -9.5812308636e-01 1.2187691326e-01 
6.1127000000e-01 -7.3929632570e-01 -9.2257866311e-01 1.5742133651e-01 
6.1222000000e-01 -7.3389517047e-01 -9.1813533148e-01 1.6186466852e-01 
6.2088000000e-01 -6.9187900525e-01 -8.8631530561e-01 1.9368469439e-01 
6.2184000000e-01 -6.8692304695e-01 -8.8233106121e-01 1.9766893879e-01 
6.3050000000e-01 -6.4782842271e-01 -8.5370086818e-01 2.2629913182e-01 
6.3145000000e-01 -6.4327497685e-01 -8.5011099203e-01 2.2988900797e-01 
6.4011000000e-01 -6.0698526110e-01 -8.2423285318e-01 2.5576714682e-01 
6.4107000000e-01 -6.0279521236e-01 -8.2098409648e-01 2.5901590352e-01 
6.4973000000e-01 -5.6914285908e-01 -7.9749623718e-01 2.8250376282e-01 
6.5068000000e-01 -5.6528036298e-01 -7.9454441952e-01 2.8545558048e-01 
6.5935000000e-01 -5.3406936045e-01 -7.7314540956e-01 3.0685459044e-01 
6.6030000000e-01 -5.3050191660e-01 -7.7045359158e-01 3.0954640842e-01 
6.6896000000e-01 -5.0152917835e-01 -7.5089039235e-01 3.2910960765e-01 
6.6991000000e-01 -4.9822763233e-01 -7.4842747105e-01 3.3157252895e-01 
6.7858000000e-01 -4.7129665020e-01 -7.3048620285e-01 3.4951379715e-01 
6.7953000000e-01 -4.6823505358e-01 -7.2822581851e-01 3.5177418149e-01 
6.8819000000e-01 -4.4316291747e-01 -7.1172456148e-01 3.6827543852e-01 
6.8914000000e-01 -4.4031828838e-01 -7.0964424093e-01 3.7035575907e-01 
6.9781000000e-01 -4.1693850465e-01 -6.9442735681e-01 3.8557264319e-01 
6.9876000000e-01 -4.1429054268e-01 -6.9250783336e-01 3.8749216664e-01 
7.0742000000e-01 -3.9245355674e-01 -6.7844145510e-01 4.0155854490e-01 
7.0837000000e-01 -3.8998434984e-01 -6.7666612651e-01 4.0333387349e-01 
7.1704000000e-01 -3.6955691723e-01 -6.6363453614e-01 4.1636546386e-01 
7.1799000000e-01 -3.6725066595e-01 -6.6198902727e-01 4.1801097273e-01 
7.2665000000e-01 -3.4811464316e-01 -6.4989173304e-01 4.3010826696e-01 
7.2760000000e-01 -3.4595740950e-01 -6.4836354181e-01 4.3163645819e-01 
7.3627000000e-01 -3.2800823402e-01 -6.3711289951e-01 4.4288710049e-01 
7.3722000000e-01 -3.2598771851e-01 -6.3569110732e-01 4.4430889268e-01 
7.4588000000e-01 -3.0913279145e-01 -6.2521036688e-01 4.5478963312e-01 
7.4684000000e-01 -3.0723813073e-01 -6.2388540077e-01 4.5611459923e-01 
7.5550000000e-01 -2.9139530767e-01 -6.1410709796e-01 4.6589290204e-01 
7.5645000000e-01 -2.8961689037e-01 -6.1287053402e-01 4.6712946598e-01 
7.6511000000e-01 -2.7471319017e-01 -6.0373515966e-01 4.7626484034e-01 
7.6607000000e-01 -2.7304249360e-01 -6.0257955969e-01 4.7742044031e-01 
7.7473000000e-01 -2.5901301542e-01 -5.9403444056e-01 4.8596555944e-01 
7.7568000000e-01 -2.5744246436e-01 -5.9295321487e-01 4.8704678513e-01 
7.8435000000e-01 -2.4422947130e-01 -5.8495158483e-01 4.9504841517e-01 
7.8530000000e-01 -2.4275232008e-01 -5.8393887793e-01 4.9606112207e-01 
7.9396000000e-01 -2.3030443099e-01 -5.7643909035e-01 5.0356090965e-01 
7.9491000000e-01 -2.2891466207e-01 -5.7548968323e-01 5.0451031677e-01 
8.0358000000e-01 -2.1718611271e-01 -5.6845453891e-01 5.1154546109e-01 
8.0453000000e-01 -2.1587834653e-01 -5.6756376760e-01 5.1243623240e-01 
8.1319000000e-01 -2.0482829940e-01 -5.6095995518e-01 5.1904004482e-01 
8.1414000000e-01 -2.0359771211e-01 -5.6012363954e-01 5.1987636046e-01 
8.2281000000e-01 -1.9318958789e-01 -5.5392124271e-01 5.2607875729e-01 
8.2376000000e-01 -1.9203183474e-01 -5.5313562697e-01 5.2686437303e-01 
8.3242000000e-01 -1.8223267349e-01 -5.4730771356e-01 5.3269228644e-01 
8.3337000000e-01 -1.8114382063e-01 -5.4656941452e-01 5.3343058548e-01 
8.4204000000e-01 -1.7192364926e-01 -5.4109167069e-01 5.3890832931e-01 
8.4299000000e-01 -1.7090012206e-01 -5.4039763282e-01 5.3960236718e-01 
8.5165000000e-01 -1.6223126146e-01 -5.3524805856e-01 5.4475194144e-01 
8.5260000000e-01 -1.6126983541e-01 -5.3459551536e-01 5.4540448464e-01 
8.6127000000e-01 -1.5312572912e-01 -5.2975414511e-01 5.5024585489e-01 
8.6222000000e-01 -1.5222366584e-01 -5.2914058538e-01 5.5085941462e-01 
8.7088000000e-01 -1.4455655388e-01 -5.2458925653e-01 5.5541074347e-01 
8.7184000000e-01 -1.4370570563e-01 -5.2401239465e-01 5.5598760535e-01 
8.8050000000e-01 -1.3639927718e-01 -5.1973453758e-01 5.6026546242e-01 
8.8145000000e-01 -1.3559025906e-01 -5.1919228779e-01 5.6080771221e-01 
8.9011000000e-01 -1.2861363641e-01 -5.1517274296e-01 5.6482725704e-01 
8.9107000000e-01 -1.2784202954e-01 -5.1466319598e-01 5.6533680402e-01 
8.9973000000e-01 -1.2120313800e-01 -5.1088804906e-01 5.6911195094e-01 
9.0068000000e-01 -1.2046932398e-01 -5.1040945243e-01 5.6959054757e-01 
9.0935000000e-01 -1.1416375759e-01 -5.0686589912e-01 5.7313410088e-01 
9.1030000000e-01 -1.1346708141e-01 -5.0641663905e-01 5.7358336095e-01 
9.1896000000e-01 -1.0748459115e-01 -5.0309284904e-01 5.7690715096e-01 
9.1991000000e-01 -1.0682383449e-01 -5.0267143420e-01 5.7732856580e-01 
9.2858000000e-01 -1.0115134667e-01 -4.9955644578e-01 5.8044355422e-01 
9.2953000000e-01 -1.0052500867e-01 -4.9916149380e-01 5.8083850620e-01 
9.3819000000e-01 -9.5148212872e-02 -4.9624511292e-01 5.8375488708e-01 
9.3914000000e-01 -9.4554672542e-02 -4.9587533735e-01 5.8412466265e-01 
9.4781000000e-01 -8.9458920992e-02 -4.9314805021e-01 5.8685194979e-01 
9.4876000000e-01 -8.8896529284e-02 -4.9280225035e-01 5.8719774965e-01 
9.5742000000e-01 -8.4067345954e-02 -4.9025514774e-01 5.8974485226e-01 
9.5837000000e-01 -8.3534479308e-02 -4.8993219810e-01 5.9006780190e-01 
9.6704000000e-01 -7.8957860207e-02 -4.8755691141e-01 5.9244308859e-01 
9.6799000000e-01 -7.8452949556e-02 -4.8725575451e-01 5.9274424549e-01 
9.7665000000e-01 -7.4115549065e-02 -4.8504439987e-01 5.9495560013e-01 
9.7760000000e-01 -7.3637093811e-02 -4.8476403842e-01 5.9523596158e-01 
9.8627000000e-01 -6.9526386230e-02 -4.8270917167e-01 5.9729082833e-01 
9.8722000000e-01 -6.9072954484e-02 -4.8244866331e-01 5.9755133669e-01 
9.9588000000e-01 -6.5177511458e-02 -4.8054324123e-01 5.9945675877e-01 
9.9684000000e-01 -6.4747715942e-02 -4.8030169388e-01 5.9969830612e-01 
9.9779000000e-01 -6.4340132763e-02 -4.8007826169e-01 5.9992173831e-01 
1.0064500000e+00 -6.0640048488e-02 -4.7831561500e-01 6.0168438500e-01 
1.0074000000e+00 -6.0253724391e-02 -4.7810949667e-01 6.0189050333e-01 
1.0160700000e+00 -5.6748135516e-02 -4.7648331015e-01 6.0351668985e-01 
1.0170200000e+00 -5.6381983322e-02 -4.7629374656e-01 6.0370625344e-01 
1.0256800000e+00 -5.3059505643e-02 -4.7479804741e-01 6.0520195259e-01 
1.0266300000e+00 -5.2712467742e-02 -4.7462432168e-01 6.0537567832e-01 
1.0353000000e+00 -4.9563150113e-02 -4.7325347136e-01 6.0674652864e-01 
1.0362500000e+00 -4.9234230179e-02 -4.7309490899e-01 6.0690509101e-01 
1.0449100000e+00 -4.6248970209e-02 -4.7184361135e-01 6.0815638865e-01 
1.0458600000e+00 -4.5937234990e-02 -4.7169958111e-01 6.0830041889e-01 
1.0545300000e+00 -4.3107578747e-02 -4.7056288327e-01 6.0943711673e-01 
1.0554800000e+00 -4.2812154541e-02 -4.7043279905e-01 6.0956720095e-01 
1.0641400000e+00 -4.0130209244e-02 -4.6940610946e-01 6.1059389054e-01 
1.0650900000e+00 -3.9850278180e-02 -4.6928943307e-01 6.1071056693e-01 
1.0737600000e+00 -3.7308661920e-02 -4.6836853859e-01 6.1163146141e-01 
1.0747100000e+00 -3.7043458539e-02 -4.6826478231e-01 6.1173521769e-01 
1.0833700000e+00 -3.4635264605e-02 -4.6744587437e-01 6.1255412563e-01 
1.0843300000e+00 -3.4384073030e-02 -4.6735460494e-01 6.1264539506e-01 
1.0929900000e+00 -3.2102842512e-02 -4.6663430383e-01 6.1336569617e-01 
1.0939400000e+00 -3.1864993966e-02 -4.6655514618e-01 6.1344485382e-01 
1.1026000000e+00 -2.9704692780e-02 -4.6593053442e-01 6.1406946558e-01 
1.1035600000e+00 -2.9479563416e-02 -4.6586317626e-01 6.1413682374e-01 
1.1122200000e+00 -2.7434562216e-02 -4.6533183193e-01 6.1466816807e-01 
1.1131700000e+00 -2.7221571156e-02 -4.6527602885e-01 6.1472397115e-01 
1.1218400000e+00 -2.5286628121e-02 -4.6483606884e-01 6.1516393116e-01 
1.1227900000e+00 -2.5085235726e-02 -4.6479164929e-01 6.1520835071e-01 
1.1314500000e+00 -2.3255480070e-02 -4.6444176712e-01 6.1555823288e-01 
1.1324000000e+00 -2.3065186207e-02 -4.6440863856e-01 6.1559136144e-01 
1.1410700000e+00 -2.1336103046e-02 -4.6414814857e-01 6.1585185143e-01 
1.1420200000e+00 -2.1156445474e-02 -4.6412630317e-01 6.1587369683e-01 
1.1506800000e+00 -1.9523861137e-02 -4.6395519635e-01 6.1604480365e-01 
1.1516300000e+00 -1.9354413796e-02 -4.6394471864e-01 6.1605528136e-01 
1.1603000000e+00 -1.7814480237e-02 -4.6386371129e-01 6.1613628871e-01 
1.1612500000e+00 -1.7654851542e-02 -4.6386478461e-01 6.1613521539e-01 
1.1699100000e+00 -1.6204031746e-02 -4.6387538052e-01 6.1612461948e-01 
1.1708600000e+00 -1.6053863244e-02 -4.6388829618e-01 6.1611170382e-01 
1.1795300000e+00 -1.4688917260e-02 -4.6399285240e-01 6.1600714760e-01 
1.1804800000e+00 -1.4547880849e-02 -4.6401801843e-01 6.1598198157e-01 
1.1891400000e+00 -1.3265840379e-02 -4.6421982005e-01 6.1578017995e-01 
1.1900900000e+00 -1.3133635444e-02 -4.6425777138e-01 6.1574222862e-01 
1.1987600000e+00 -1.1931779071e-02 -4.6456111173e-01 6.1543888827e-01 
1.1997100000e+00 -1.1808129922e-02 -4.6461252235e-01 6.1538747765e-01 
1.2083700000e+00 -1.0683960398e-02 -4.6502280390e-01 6.1497719610e-01 
1.2093300000e+00 -1.0568613400e-02 -4.6508850057e-01 6.1491149943e-01 
1.2179900000e+00 -9.5198313403e-03 -4.6561233766e-01 6.1438766234e-01 
1.2189400000e+00 -9.4125516113e-03 -4.6569331508e-01 6.1430668492e-01 
1.2276000000e+00 -8.4370258418e-03 -4.6633867086e-01 6.1366132914e-01 
1.2285600000e+00 -8.3375935157e-03 -4.6643611056e-01 6.1356388944e-01 
1.2372200000e+00 -7.4333277978e-03 -4.6721243754e-01 6.1278756246e-01 
1.2381700000e+00 -7.3415338680e-03 -4.6732772990e-01 6.1267227010e-01 
1.2468400000e+00 -6.5066294344e-03 -4.6824615740e-01 6.1175384260e-01 
1.2477900000e+00 -6.4222711722e-03 -4.6838092709e-01 6.1161907291e-01 
1.2564500000e+00 -5.6548857402e-03 -4.6945446663e-01 6.1054553337e-01 
1.2574000000e+00 -5.5777617350e-03 -4.6961060470e-01 6.1038939530e-01 
1.2660700000e+00 -4.8760651405e-03 -4.7085441223e-01 6.0914558777e-01 
1.2670200000e+00 -4.8059700275e-03 -4.7103411352e-01 6.0896588648e-01 
1.2756800000e+00 -4.1680970571e-03 -4.7246580203e-01 6.0753419797e-01 
1.2766300000e+00 -4.1048160823e-03 -4.7267161210e-01 6.0732838790e-01 
1.2853000000e+00 -3.5288178544e-03 -4.7431162917e-01 6.0568837083e-01 
1.2862500000e+00 -3.4721214347e-03 -4.7454650111e-01 6.0545349889e-01 
1.2949100000e+00 -2.9559166731e-03 -4.7641860734e-01 6.0358139266e-01 
1.2958600000e+00 -2.9055552190e-03 -4.7668597226e-01 6.0331402774e-01 
1.3045300000e+00 -2.4468837512e-03 -4.7881782153e-01 6.0118217847e-01 
1.3054800000e+00 -2.4025830669e-03 -4.7912167722e-01 6.0087832278e-01 
1.3141400000e+00 -1.9989641886e-03 -4.8154555373e-01 5.9845444627e-01 
1.3150900000e+00 -1.9604218058e-03 -4.8189057485e-01 5.9810942515e-01 
1.3237600000e+00 -1.6091208443e-03 -4.8464431483e-01 5.9535568517e-01 
1.3247100000e+00 -1.5760037113e-03 -4.8503599311e-01 5.9496400689e-01 
1.3333700000e+00 -1.2740102299e-03 -4.8816415883e-01 5.9183584117e-01 
1.3343300000e+00 -1.2459541220e-03 -4.8860898090e-01 5.9139101910e-01 
1.3429900000e+00 -9.8997545255e-04 -4.9216435821e-01 5.8783564179e-01 
1.3439400000e+00 -9.6658641134e-04 -4.9267003508e-01 5.8732996492e-01 
1.3526000000e+00 -7.5305914308e-04 -4.9671557412e-01 5.8328442588e-01 
1.3535600000e+00 -7.3391704888e-04 -4.9729133656e-01 5.8270866344e-01 
1.3622200000e+00 -5.5903829725e-04 -5.0190267375e-01 5.7809732625e-01 
1.3631700000e+00 -5.4370245092e-04 -5.0255966049e-01 5.7744033951e-01 
1.3718400000e+00 -4.0348036820e-04 -5.0782843874e-01 5.7217156126e-01 
1.3727900000e+00 -3.9149663327e-04 -5.0858020707e-01 5.7141979293e-01 
1.3814500000e+00 -2.8181800897e-04 -5.1461849795e-01 5.6538150205e-01 
1.3824000000e+00 -2.7272673041e-04 -5.1548170655e-01 5.6451829345e-01 
1.3910700000e+00 -1.8944010153e-04 -5.2242795966e-01 5.5757204034e-01 
1.3920200000e+00 -1.8278320833e-04 -5.2342329093e-01 5.5657670907e-01 
1.4006800000e+00 -1.2179818792e-04 -5.3145045477e-01 5.4854954523e-01 
1.4016300000e+00 -1.1712073110e-04 -5.3260387881e-01 5.4739612119e-01 
1.4103000000e+00 -7.4034123116e-05 -5.4193064269e-01 5.3806935731e-01 
1.4112500000e+00 -7.0906876367e-05 -5.4327517304e-01 5.3672482696e-01 
1.4199100000e+00 -4.1936875487e-05 -5.5418172489e-01 5.2581827511e-01 
1.4208600000e+00 -3.9978514032e-05 -5.5575990222e-01 5.2424009778e-01 
1.4295300000e+00 -2.1795737126e-05 -5.6861035659e-01 5.1138964341e-01 
1.4304800000e+00 -2.0671538150e-05 -5.7047782670e-01 5.0952217330e-01 
1.4391400000e+00 -1.0194176057e-05 -5.8575246482e-01 4.9424753518e-01 
1.4400900000e+00 -9.6141309009e-06 -5.8798327098e-01 4.9201672902e-01 
1.4487600000e+00 -4.1829320867e-06 -6.0632510870e-01 4.7367489130e-01 
1.4497100000e+00 -3.9209479080e-06 -6.0901981108e-01 4.7098018892e-01 
1.4583700000e+00 -1.4556662219e-06 -6.3130101431e-01 4.4869898569e-01 
1.4593300000e+00 -1.3556090495e-06 -6.3459995954e-01 4.4540004046e-01 
1.4679900000e+00 -4.1048680662e-07 -6.6201145447e-01 4.1798854553e-01 
1.4689400000e+00 -3.7962732255e-07 -6.6611900761e-01 4.1388099239e-01 
1.4776000000e+00 -8.7985892439e-08 -7.0026892265e-01 3.7973107735e-01 
1.4785600000e+00 -8.0790297850e-08 -7.0550598481e-01 3.7449401519e-01 
1.4872200000e+00 -1.3088361891e-08 -7.4842515759e-01 3.3157484241e-01 
1.4881700000e+00 -1.1946841708e-08 -7.5533108357e-01 3.2466891643e-01 
1.4968400000e+00 -1.2555316200e-09 -8.0868460366e-01 2.7131539634e-01 
1.4977800000e+00 -1.1545383766e-09 -8.1738417147e-01 2.6261582853e-01 
1.5064300000e+00 -1.8264827008e-10 -8.7182048720e-01 2.0817951280e-01 
1.5074400000e+00 -1.7776761675e-10 -8.7857224189e-01 2.0142775814e-01 
1.5166400000e+00 -1.1202869280e-10 -9.2682801577e-01 1.5317198426e-01 
1.5177200000e+00 -1.1135901105e-10 -9.2856404740e-01 1.5143595304e-01 
1.5275200000e+00 -1.0340077828e-10 -9.6210599419e-01 1.1789400625e-01 
1.5286700000e+00 -1.0289762858e-10 -9.6233775507e-01 1.1766224447e-01 
1.5391100000e+00 -9.8864949423e-11 -9.7136892100e-01 1.0863107853e-01 
1.5403400000e+00 -9.8355103861e-11 -9.7143051583e-01 1.0856948461e-01 
1.5514600000e+00 -9.3905595852e-11 -9.7796977159e-01 1.0203022886e-01 
1.5527600000e+00 -9.3381972152e-11 -9.7802102621e-01 1.0197897334e-01 
1.5646000000e+00 -8.8830336152e-11 -9.8486415571e-01 9.5135843835e-02 
1.5659900000e+00 -8.8290551207e-11 -9.8487720520e-01 9.5122794393e-02 
1.5786000000e+00 -8.3617484820e-11 -9.8642809318e-01 9.3571906682e-02 
1.5800800000e+00 -8.3042571549e-11 -9.8642965520e-01 9.3570345227e-02 
1.5935100000e+00 -7.7896589891e-11 -9.8655582311e-01 9.3444177135e-02 
1.5950800000e+00 -7.7279771714e-11 -9.8655611513e-01 9.3443884697e-02 
1.6093900000e+00 -7.1689135049e-11 -9.8656572623e-01 9.3434273414e-02 
1.6110700000e+00 -7.1028073195e-11 -9.8656587075e-01 9.3434129477e-02 
1.6263000000e+00 -6.5018228374e-11 -9.8656681231e-01 9.3433187648e-02 
1.6280900000e+00 -6.4310802248e-11 -9.8656691229e-01 9.3433087008e-02 
1.6443200000e+00 -5.7875904582e-11 -9.8656706366e-01 9.3432935728e-02 
1.6462200000e+00 -5.7119603808e-11 -9.8656711117e-01 9.3432888521e-02 
1.6635000000e+00 -5.0246723224e-11 -9.8656426397e-01 9.3435735991e-02 
1.6655900000e+00 -4.9413119884e-11 -9.8656377200e-01 9.3436228176e-02 
1.6845600000e+00 -4.1892404031e-11 -9.8649309476e-01 9.3506905056e-02 
1.6872500000e+00 -4.0794048880e-11 -9.8648875813e-01 9.3511241856e-02 
1.7117400000e+00 -3.0897988394e-11 -9.8607474098e-01 9.3925259638e-02 
1.7152200000e+00 -2.9318122411e-11 -9.8584967857e-01 9.4150321731e-02 
1.7468400000e+00 -7.3234253676e-12 -9.5617299710e-01 1.2382700293e-01 
1.7501400000e+00 -6.5816436880e-12 -9.5617021952e-01 1.2382978085e-01 
1.7801700000e+00 -3.2953181534e-12 -9.5598558218e-01 1.2401441818e-01 
1.7851200000e+00 -2.8412931289e-12 -9.5598559010e-01 1.2401440988e-01 
1.8301700000e+00 -1.2112157514e-12 -9.5598461971e-01 1.2401538027e-01 
1.8367700000e+00 -1.0243358659e-12 -9.5598464149e-01 1.2401535854e-01 
1.8968400000e+00 -3.5817062557e-13 -9.5598466402e-01 1.2401533601e-01 
1.9067300000e+00 -3.1247799123e-13 -9.5598457295e-01 1.2401542713e-01 
1.9968400000e+00 -1.4966058612e-13 -9.5598373861e-01 1.2401626147e-01 
